<?xml version="1.0" encoding="UTF-8" standalone="yes"?>
<PMML xmlns="http://www.dmg.org/PMML-4_4" xmlns:data="http://jpmml.org/jpmml-model/InlineTable" version="4.4">
	<Header>
		<Application name="SkLearn2PMML package" version="0.117.0"/>
		<Timestamp>2025-05-24T17:38:53Z</Timestamp>
	</Header>
	<MiningBuildTask>
		<Extension name="repr">PMMLPipeline(steps=[('preprocessor', ColumnTransformer(transformers=[('cat', OneHotEncoder(handle_unknown='ignore'),
                                 ['product_id', 'seller_id']),
                                ('num', StandardScaler(),
                                 ['sale_price', 'original_price', 'is_holiday',
                                  'is_weekend', 'day_of_week', 'day_of_month',
                                  'month', 'lag_1', 'lag_7', 'lag_30'])])),
       ('regressor', XGBRegressor(base_score=None, booster=None, callbacks=None,
             colsample_bylevel=None, colsample_bynode=None,
             colsample_bytree=None, device=None, early_stopping_rounds=None,
             enable_categorical=False, eval_metric=None, feature_types=None,
             feature_weights=None, gamma=None, grow_policy=None,
             importance_type=None, interaction_constraints=None,
             learning_rate=0.1, max_bin=None, max_cat_threshold=None,
             max_cat_to_onehot=None, max_delta_step=None, max_depth=6,
             max_leaves=None, min_child_weight=None, missing=nan,
             monotone_constraints=None, multi_strategy=None, n_estimators=100,
             n_jobs=None, num_parallel_tree=None, ...))])</Extension>
	</MiningBuildTask>
	<DataDictionary>
		<DataField name="quantity" optype="continuous" dataType="float"/>
		<DataField name="product_id" optype="categorical" dataType="string">
			<Value value="p100"/>
			<Value value="p101"/>
			<Value value="p102"/>
			<Value value="p200"/>
			<Value value="p201"/>
			<Value value="p300"/>
			<Value value="p301"/>
			<Value value="p302"/>
			<Value value="p400"/>
			<Value value="p401"/>
			<Value value="p402"/>
		</DataField>
		<DataField name="seller_id" optype="categorical" dataType="string">
			<Value value="seller_1"/>
			<Value value="seller_2"/>
			<Value value="seller_3"/>
			<Value value="seller_4"/>
			<Value value="seller_5"/>
			<Value value="seller_6"/>
		</DataField>
		<DataField name="sale_price" optype="continuous" dataType="double"/>
		<DataField name="original_price" optype="continuous" dataType="double"/>
		<DataField name="is_holiday" optype="continuous" dataType="double"/>
		<DataField name="is_weekend" optype="continuous" dataType="double"/>
		<DataField name="day_of_week" optype="continuous" dataType="double"/>
		<DataField name="day_of_month" optype="continuous" dataType="double"/>
		<DataField name="month" optype="continuous" dataType="double"/>
		<DataField name="lag_1" optype="continuous" dataType="double"/>
		<DataField name="lag_7" optype="continuous" dataType="double"/>
		<DataField name="lag_30" optype="continuous" dataType="double"/>
	</DataDictionary>
	<MiningModel functionName="regression" algorithmName="XGBoost (GBTree)" x-mathContext="float">
		<MiningSchema>
			<MiningField name="quantity" usageType="target"/>
			<MiningField name="product_id" invalidValueTreatment="asIs"/>
			<MiningField name="seller_id" invalidValueTreatment="asIs"/>
			<MiningField name="sale_price"/>
			<MiningField name="is_weekend"/>
			<MiningField name="lag_7"/>
			<MiningField name="day_of_month"/>
			<MiningField name="lag_30"/>
			<MiningField name="lag_1"/>
			<MiningField name="month"/>
			<MiningField name="day_of_week"/>
			<MiningField name="original_price"/>
			<MiningField name="is_holiday"/>
		</MiningSchema>
		<Targets>
			<Target field="quantity" rescaleConstant="7.5510635"/>
		</Targets>
		<LocalTransformations>
			<DerivedField name="standardScaler(sale_price)" optype="continuous" dataType="double">
				<Apply function="/">
					<Apply function="-">
						<FieldRef field="sale_price"/>
						<Constant dataType="double">467.3742790870229</Constant>
					</Apply>
					<Constant dataType="double">482.73609744276587</Constant>
				</Apply>
			</DerivedField>
			<DerivedField name="standardScaler(original_price)" optype="continuous" dataType="double">
				<Apply function="/">
					<Apply function="-">
						<FieldRef field="original_price"/>
						<Constant dataType="double">505.11362303548606</Constant>
					</Apply>
					<Constant dataType="double">520.4777499526097</Constant>
				</Apply>
			</DerivedField>
			<DerivedField name="standardScaler(is_holiday)" optype="continuous" dataType="double">
				<Apply function="/">
					<Apply function="-">
						<FieldRef field="is_holiday"/>
						<Constant dataType="double">0.027600377630921307</Constant>
					</Apply>
					<Constant dataType="double">0.1638248967207117</Constant>
				</Apply>
			</DerivedField>
			<DerivedField name="standardScaler(is_weekend)" optype="continuous" dataType="double">
				<Apply function="/">
					<Apply function="-">
						<FieldRef field="is_weekend"/>
						<Constant dataType="double">0.2860554228910979</Constant>
					</Apply>
					<Constant dataType="double">0.451915609296352</Constant>
				</Apply>
			</DerivedField>
			<DerivedField name="standardScaler(day_of_week)" optype="continuous" dataType="double">
				<Apply function="/">
					<Apply function="-">
						<FieldRef field="day_of_week"/>
						<Constant dataType="double">3.000971844282779</Constant>
					</Apply>
					<Constant dataType="double">2.000631363008667</Constant>
				</Apply>
			</DerivedField>
			<DerivedField name="standardScaler(day_of_month)" optype="continuous" dataType="double">
				<Apply function="/">
					<Apply function="-">
						<FieldRef field="day_of_month"/>
						<Constant dataType="double">15.649830621425002</Constant>
					</Apply>
					<Constant dataType="double">8.73680969003648</Constant>
				</Apply>
			</DerivedField>
			<DerivedField name="standardScaler(month)" optype="continuous" dataType="double">
				<Apply function="/">
					<Apply function="-">
						<FieldRef field="month"/>
						<Constant dataType="double">6.118342866662965</Constant>
					</Apply>
					<Constant dataType="double">3.4005952339710896</Constant>
				</Apply>
			</DerivedField>
			<DerivedField name="standardScaler(lag_1)" optype="continuous" dataType="double">
				<Apply function="/">
					<Apply function="-">
						<FieldRef field="lag_1"/>
						<Constant dataType="double">7.551813183761871</Constant>
					</Apply>
					<Constant dataType="double">5.479518594180121</Constant>
				</Apply>
			</DerivedField>
			<DerivedField name="standardScaler(lag_7)" optype="continuous" dataType="double">
				<Apply function="/">
					<Apply function="-">
						<FieldRef field="lag_7"/>
						<Constant dataType="double">7.558838229577386</Constant>
					</Apply>
					<Constant dataType="double">5.481925099695929</Constant>
				</Apply>
			</DerivedField>
			<DerivedField name="standardScaler(lag_30)" optype="continuous" dataType="double">
				<Apply function="/">
					<Apply function="-">
						<FieldRef field="lag_30"/>
						<Constant dataType="double">7.5520630865774425</Constant>
					</Apply>
					<Constant dataType="double">5.47960743815244</Constant>
				</Apply>
			</DerivedField>
			<DerivedField name="float(standardScaler(sale_price))" optype="continuous" dataType="float">
				<FieldRef field="standardScaler(sale_price)"/>
			</DerivedField>
			<DerivedField name="float(standardScaler(is_weekend))" optype="continuous" dataType="float">
				<FieldRef field="standardScaler(is_weekend)"/>
			</DerivedField>
			<DerivedField name="float(standardScaler(lag_7))" optype="continuous" dataType="float">
				<FieldRef field="standardScaler(lag_7)"/>
			</DerivedField>
			<DerivedField name="float(standardScaler(day_of_month))" optype="continuous" dataType="float">
				<FieldRef field="standardScaler(day_of_month)"/>
			</DerivedField>
			<DerivedField name="float(standardScaler(lag_30))" optype="continuous" dataType="float">
				<FieldRef field="standardScaler(lag_30)"/>
			</DerivedField>
			<DerivedField name="float(standardScaler(lag_1))" optype="continuous" dataType="float">
				<FieldRef field="standardScaler(lag_1)"/>
			</DerivedField>
			<DerivedField name="float(standardScaler(month))" optype="continuous" dataType="float">
				<FieldRef field="standardScaler(month)"/>
			</DerivedField>
			<DerivedField name="float(standardScaler(day_of_week))" optype="continuous" dataType="float">
				<FieldRef field="standardScaler(day_of_week)"/>
			</DerivedField>
			<DerivedField name="float(standardScaler(original_price))" optype="continuous" dataType="float">
				<FieldRef field="standardScaler(original_price)"/>
			</DerivedField>
			<DerivedField name="float(standardScaler(is_holiday))" optype="continuous" dataType="float">
				<FieldRef field="standardScaler(is_holiday)"/>
			</DerivedField>
		</LocalTransformations>
		<Segmentation multipleModelMethod="sum" missingPredictionTreatment="returnMissing">
			<Segment id="1">
				<True/>
				<TreeModel functionName="regression" noTrueChildStrategy="returnLastPrediction" x-mathContext="float">
					<MiningSchema>
						<MiningField name="product_id"/>
						<MiningField name="seller_id"/>
						<MiningField name="float(standardScaler(sale_price))"/>
						<MiningField name="float(standardScaler(is_weekend))"/>
						<MiningField name="float(standardScaler(lag_7))"/>
						<MiningField name="float(standardScaler(day_of_month))"/>
						<MiningField name="float(standardScaler(lag_30))"/>
						<MiningField name="float(standardScaler(lag_1))"/>
						<MiningField name="float(standardScaler(month))"/>
					</MiningSchema>
					<Node score="0.22244683">
						<True/>
						<Node score="0.32678196">
							<SimplePredicate field="float(standardScaler(sale_price))" operator="lessThan" value="-0.9217064"/>
							<Node score="-0.17120565">
								<SimplePredicate field="float(standardScaler(is_weekend))" operator="lessThan" value="1.5798184"/>
								<Node score="0.08683102">
									<SimplePredicate field="product_id" operator="notEqual" value="p400"/>
									<Node score="0.367946">
										<SimplePredicate field="float(standardScaler(sale_price))" operator="lessThan" value="-0.9358307"/>
										<Node score="0.3449603">
											<SimplePredicate field="seller_id" operator="notEqual" value="seller_1"/>
											<Node score="0.2509962">
												<SimplePredicate field="float(standardScaler(sale_price))" operator="lessThan" value="-0.9372663"/>
											</Node>
										</Node>
										<Node score="0.49098498">
											<SimplePredicate field="float(standardScaler(lag_7))" operator="lessThan" value="0.44531104"/>
										</Node>
									</Node>
									<Node score="-0.35321483">
										<SimplePredicate field="product_id" operator="notEqual" value="p302"/>
										<Node score="0.024798268">
											<SimplePredicate field="float(standardScaler(sale_price))" operator="lessThan" value="-0.93505394"/>
										</Node>
									</Node>
									<Node score="0.25938666">
										<SimplePredicate field="float(standardScaler(day_of_month))" operator="lessThan" value="1.1846623"/>
									</Node>
								</Node>
								<Node score="0.26233125">
									<SimplePredicate field="float(standardScaler(sale_price))" operator="lessThan" value="-0.9418485"/>
									<Node score="0.20773368">
										<SimplePredicate field="seller_id" operator="notEqual" value="seller_1"/>
										<Node score="0.12045342">
											<SimplePredicate field="float(standardScaler(sale_price))" operator="lessThan" value="-0.94278073"/>
										</Node>
									</Node>
									<Node score="0.6535107">
										<SimplePredicate field="float(standardScaler(sale_price))" operator="lessThan" value="-0.94568086"/>
									</Node>
								</Node>
								<Node score="-0.14318836">
									<SimplePredicate field="float(standardScaler(sale_price))" operator="lessThan" value="-0.9412685"/>
									<Node score="-0.00415945">
										<SimplePredicate field="float(standardScaler(lag_30))" operator="lessThan" value="-0.10074866"/>
									</Node>
								</Node>
								<Node score="-0.42130205">
									<SimplePredicate field="float(standardScaler(lag_1))" operator="lessThan" value="2.4542644"/>
								</Node>
							</Node>
							<Node score="0.9026336">
								<SimplePredicate field="float(standardScaler(sale_price))" operator="lessThan" value="-0.93861693"/>
								<Node score="-0.0105318865">
									<SimplePredicate field="seller_id" operator="notEqual" value="seller_1"/>
									<Node score="0.5167047">
										<SimplePredicate field="product_id" operator="notEqual" value="p400"/>
										<Node score="0.624006">
											<SimplePredicate field="float(standardScaler(lag_1))" operator="lessThan" value="0.8117842"/>
										</Node>
									</Node>
									<Node score="0.4067126">
										<SimplePredicate field="float(standardScaler(sale_price))" operator="lessThan" value="-0.94418937"/>
									</Node>
								</Node>
								<Node score="0.37448585">
									<SimplePredicate field="float(standardScaler(sale_price))" operator="lessThan" value="-0.949306"/>
									<Node score="1.0411615">
										<SimplePredicate field="float(standardScaler(lag_7))" operator="lessThan" value="4.4585"/>
									</Node>
								</Node>
								<Node score="0.57390445">
									<SimplePredicate field="float(standardScaler(sale_price))" operator="lessThan" value="-0.9412685"/>
								</Node>
							</Node>
							<Node score="-0.069476925">
								<SimplePredicate field="seller_id" operator="notEqual" value="seller_1"/>
								<Node score="0.11809733">
									<SimplePredicate field="float(standardScaler(day_of_month))" operator="lessThan" value="0.84128755"/>
									<Node score="-0.12423302">
										<SimplePredicate field="float(standardScaler(sale_price))" operator="lessThan" value="-0.92316854"/>
									</Node>
								</Node>
								<Node score="0.26097652">
									<SimplePredicate field="float(standardScaler(lag_1))" operator="lessThan" value="1.3592776"/>
								</Node>
							</Node>
							<Node score="0.4009202">
								<SimplePredicate field="float(standardScaler(month))" operator="lessThan" value="1.4355302"/>
								<Node score="-0.24592197">
									<SimplePredicate field="float(standardScaler(day_of_month))" operator="lessThan" value="-1.5623358"/>
								</Node>
							</Node>
							<Node score="-0.11235104">
								<SimplePredicate field="float(standardScaler(lag_30))" operator="lessThan" value="0.26424098"/>
							</Node>
						</Node>
						<Node score="0.20901306">
							<SimplePredicate field="float(standardScaler(sale_price))" operator="lessThan" value="-0.80719936"/>
							<Node score="0.110934496">
								<SimplePredicate field="seller_id" operator="notEqual" value="seller_1"/>
								<Node score="-0.48282108">
									<SimplePredicate field="product_id" operator="notEqual" value="p301"/>
									<Node score="-0.043462195">
										<SimplePredicate field="float(standardScaler(sale_price))" operator="lessThan" value="-0.9172181"/>
										<Node score="0.03248428">
											<SimplePredicate field="float(standardScaler(month))" operator="lessThan" value="-0.3288668"/>
										</Node>
									</Node>
									<Node score="-0.2555692">
										<SimplePredicate field="float(standardScaler(sale_price))" operator="lessThan" value="-0.9165552"/>
									</Node>
								</Node>
								<Node score="0.65591496">
									<SimplePredicate field="float(standardScaler(sale_price))" operator="lessThan" value="-0.8179506"/>
									<Node score="0.10827416">
										<SimplePredicate field="float(standardScaler(lag_30))" operator="lessThan" value="2.8191686"/>
									</Node>
								</Node>
								<Node score="-0.025769174">
									<SimplePredicate field="float(standardScaler(lag_1))" operator="lessThan" value="1.1767797"/>
								</Node>
							</Node>
							<Node score="0.12568355">
								<SimplePredicate field="float(standardScaler(is_weekend))" operator="lessThan" value="1.5798184"/>
								<Node score="-0.050190456">
									<SimplePredicate field="float(standardScaler(sale_price))" operator="lessThan" value="-0.81364185"/>
									<Node score="0.07803141">
										<SimplePredicate field="float(standardScaler(sale_price))" operator="lessThan" value="-0.91765827"/>
									</Node>
								</Node>
								<Node score="0.43040428">
									<SimplePredicate field="float(standardScaler(day_of_month))" operator="lessThan" value="-1.5623358"/>
								</Node>
							</Node>
							<Node score="-0.07813827">
								<SimplePredicate field="float(standardScaler(day_of_month))" operator="lessThan" value="-1.1045028"/>
								<Node score="0.1301668">
									<SimplePredicate field="float(standardScaler(month))" operator="lessThan" value="0.25926554"/>
								</Node>
							</Node>
							<Node score="0.48430094">
								<SimplePredicate field="float(standardScaler(sale_price))" operator="lessThan" value="-0.9206672"/>
							</Node>
						</Node>
						<Node score="-0.4028286">
							<SimplePredicate field="float(standardScaler(sale_price))" operator="lessThan" value="1.2465315"/>
							<Node score="-0.012145627">
								<SimplePredicate field="float(standardScaler(is_weekend))" operator="lessThan" value="1.5798184"/>
								<Node score="-0.18000507">
									<SimplePredicate field="float(standardScaler(month))" operator="lessThan" value="1.4355302"/>
									<Node score="-0.124033846">
										<SimplePredicate field="float(standardScaler(sale_price))" operator="lessThan" value="-0.70691687"/>
									</Node>
								</Node>
								<Node score="-0.1275701">
									<SimplePredicate field="float(standardScaler(day_of_month))" operator="lessThan" value="0.7268293"/>
								</Node>
							</Node>
							<Node score="-0.09176962">
								<SimplePredicate field="float(standardScaler(sale_price))" operator="lessThan" value="1.1314064"/>
								<Node score="-0.013279629">
									<SimplePredicate field="float(standardScaler(sale_price))" operator="lessThan" value="-0.71945995"/>
								</Node>
							</Node>
							<Node score="-0.23772338">
								<SimplePredicate field="float(standardScaler(sale_price))" operator="lessThan" value="1.1685178"/>
							</Node>
						</Node>
						<Node score="-0.26492018">
							<SimplePredicate field="float(standardScaler(sale_price))" operator="lessThan" value="1.666181"/>
							<Node score="-0.4703036">
								<SimplePredicate field="product_id" operator="notEqual" value="p102"/>
								<Node score="-0.27517995">
									<SimplePredicate field="float(standardScaler(sale_price))" operator="lessThan" value="1.2908621"/>
								</Node>
							</Node>
							<Node score="-0.2009557">
								<SimplePredicate field="float(standardScaler(sale_price))" operator="lessThan" value="1.4840473"/>
							</Node>
						</Node>
						<Node score="-0.43170974">
							<SimplePredicate field="float(standardScaler(sale_price))" operator="lessThan" value="1.68816"/>
							<Node score="-0.3263001">
								<SimplePredicate field="float(standardScaler(lag_30))" operator="lessThan" value="0.08174617"/>
							</Node>
						</Node>
						<Node score="-0.46853969">
							<SimplePredicate field="float(standardScaler(lag_7))" operator="lessThan" value="1.7222347"/>
						</Node>
					</Node>
				</TreeModel>
			</Segment>
			<Segment id="2">
				<True/>
				<TreeModel functionName="regression" noTrueChildStrategy="returnLastPrediction" x-mathContext="float">
					<MiningSchema>
						<MiningField name="product_id"/>
						<MiningField name="seller_id"/>
						<MiningField name="float(standardScaler(sale_price))"/>
						<MiningField name="float(standardScaler(is_weekend))"/>
						<MiningField name="float(standardScaler(lag_7))"/>
						<MiningField name="float(standardScaler(day_of_month))"/>
						<MiningField name="float(standardScaler(lag_30))"/>
						<MiningField name="float(standardScaler(lag_1))"/>
						<MiningField name="float(standardScaler(month))"/>
					</MiningSchema>
					<Node score="0.21132448">
						<True/>
						<Node score="0.29818854">
							<SimplePredicate field="float(standardScaler(sale_price))" operator="lessThan" value="-0.9217064"/>
							<Node score="-0.3183241">
								<SimplePredicate field="float(standardScaler(is_weekend))" operator="lessThan" value="1.5798184"/>
								<Node score="0.049844068">
									<SimplePredicate field="float(standardScaler(sale_price))" operator="lessThan" value="-0.9470377"/>
									<Node score="0.15317771">
										<SimplePredicate field="seller_id" operator="notEqual" value="seller_1"/>
										<Node score="0.35495648">
											<SimplePredicate field="float(standardScaler(lag_30))" operator="lessThan" value="1.5417048"/>
											<Node score="0.25801507">
												<SimplePredicate field="float(standardScaler(sale_price))" operator="lessThan" value="-0.94770503"/>
											</Node>
										</Node>
										<Node score="0.3916007">
											<SimplePredicate field="float(standardScaler(month))" operator="lessThan" value="-0.9169991"/>
										</Node>
									</Node>
									<Node score="0.48895976">
										<SimplePredicate field="float(standardScaler(sale_price))" operator="lessThan" value="-0.9478145"/>
										<Node score="0.19265151">
											<SimplePredicate field="float(standardScaler(day_of_month))" operator="lessThan" value="0.84128755"/>
										</Node>
									</Node>
									<Node score="0.5474574">
										<SimplePredicate field="float(standardScaler(day_of_month))" operator="lessThan" value="1.0702041"/>
									</Node>
								</Node>
								<Node score="0.15246458">
									<SimplePredicate field="product_id" operator="notEqual" value="p402"/>
									<Node score="0.16786046">
										<SimplePredicate field="float(standardScaler(sale_price))" operator="lessThan" value="-0.9418485"/>
										<Node score="-0.01619889">
											<SimplePredicate field="float(standardScaler(sale_price))" operator="lessThan" value="-0.94638515"/>
										</Node>
									</Node>
									<Node score="-0.16542388">
										<SimplePredicate field="product_id" operator="notEqual" value="p302"/>
									</Node>
								</Node>
								<Node score="0.2937077">
									<SimplePredicate field="float(standardScaler(sale_price))" operator="lessThan" value="-0.9358307"/>
									<Node score="0.50701934">
										<SimplePredicate field="float(standardScaler(sale_price))" operator="lessThan" value="-0.93892765"/>
									</Node>
								</Node>
								<Node score="0.02232793">
									<SimplePredicate field="float(standardScaler(sale_price))" operator="lessThan" value="-0.93505394"/>
								</Node>
							</Node>
							<Node score="0.80661625">
								<SimplePredicate field="float(standardScaler(sale_price))" operator="lessThan" value="-0.93861693"/>
								<Node score="-0.009491536">
									<SimplePredicate field="seller_id" operator="notEqual" value="seller_1"/>
									<Node score="0.5795226">
										<SimplePredicate field="product_id" operator="notEqual" value="p400"/>
										<Node score="0.47814128">
											<SimplePredicate field="float(standardScaler(sale_price))" operator="lessThan" value="-0.9411235"/>
										</Node>
									</Node>
									<Node score="0.36609593">
										<SimplePredicate field="float(standardScaler(sale_price))" operator="lessThan" value="-0.94418937"/>
									</Node>
								</Node>
								<Node score="0.34015796">
									<SimplePredicate field="float(standardScaler(sale_price))" operator="lessThan" value="-0.949306"/>
									<Node score="0.93775845">
										<SimplePredicate field="float(standardScaler(lag_7))" operator="lessThan" value="4.4585"/>
									</Node>
								</Node>
								<Node score="0.51156235">
									<SimplePredicate field="float(standardScaler(sale_price))" operator="lessThan" value="-0.9414964"/>
								</Node>
							</Node>
							<Node score="0.124613665">
								<SimplePredicate field="seller_id" operator="notEqual" value="seller_1"/>
								<Node score="0.024781711">
									<SimplePredicate field="float(standardScaler(lag_1))" operator="lessThan" value="-0.100704685"/>
									<Node score="0.21966629">
										<SimplePredicate field="seller_id" operator="notEqual" value="seller_5"/>
									</Node>
								</Node>
								<Node score="-0.033440616">
									<SimplePredicate field="seller_id" operator="notEqual" value="seller_5"/>
								</Node>
							</Node>
							<Node score="0.2997897">
								<SimplePredicate field="float(standardScaler(month))" operator="lessThan" value="1.4355302"/>
								<Node score="0.8755442">
									<SimplePredicate field="float(standardScaler(lag_7))" operator="lessThan" value="-0.83161265"/>
								</Node>
							</Node>
							<Node score="-0.10167769">
								<SimplePredicate field="float(standardScaler(lag_30))" operator="lessThan" value="0.26424098"/>
							</Node>
						</Node>
						<Node score="-0.040806122">
							<SimplePredicate field="float(standardScaler(sale_price))" operator="lessThan" value="-0.80719936"/>
							<Node score="0.09992982">
								<SimplePredicate field="seller_id" operator="notEqual" value="seller_1"/>
								<Node score="-0.4351351">
									<SimplePredicate field="product_id" operator="notEqual" value="p301"/>
									<Node score="-0.0391205">
										<SimplePredicate field="float(standardScaler(sale_price))" operator="lessThan" value="-0.9172181"/>
										<Node score="0.02924122">
											<SimplePredicate field="float(standardScaler(month))" operator="lessThan" value="-0.3288668"/>
										</Node>
									</Node>
									<Node score="-0.23027575">
										<SimplePredicate field="float(standardScaler(sale_price))" operator="lessThan" value="-0.9165552"/>
									</Node>
								</Node>
								<Node score="0.19097736">
									<SimplePredicate field="float(standardScaler(sale_price))" operator="lessThan" value="-0.8179506"/>
									<Node score="0.0788285">
										<SimplePredicate field="float(standardScaler(lag_1))" operator="lessThan" value="0.994282"/>
									</Node>
								</Node>
								<Node score="-0.023194483">
									<SimplePredicate field="float(standardScaler(lag_1))" operator="lessThan" value="1.1767797"/>
								</Node>
							</Node>
							<Node score="0.055087853">
								<SimplePredicate field="float(standardScaler(is_weekend))" operator="lessThan" value="1.5798184"/>
								<Node score="-0.038905106">
									<SimplePredicate field="float(standardScaler(sale_price))" operator="lessThan" value="-0.81364185"/>
									<Node score="0.07561901">
										<SimplePredicate field="float(standardScaler(sale_price))" operator="lessThan" value="-0.91801214"/>
									</Node>
								</Node>
								<Node score="0.16789751">
									<SimplePredicate field="float(standardScaler(lag_30))" operator="lessThan" value="0.44673583"/>
								</Node>
							</Node>
							<Node score="0.13803895">
								<SimplePredicate field="float(standardScaler(day_of_month))" operator="lessThan" value="1.6424954"/>
								<Node score="0.35262376">
									<SimplePredicate field="float(standardScaler(sale_price))" operator="lessThan" value="-0.9206672"/>
								</Node>
							</Node>
							<Node score="0.8768821">
								<SimplePredicate field="float(standardScaler(lag_7))" operator="lessThan" value="0.8101464"/>
							</Node>
						</Node>
						<Node score="-0.3629054">
							<SimplePredicate field="float(standardScaler(sale_price))" operator="lessThan" value="1.2465315"/>
							<Node score="-0.04039039">
								<SimplePredicate field="float(standardScaler(is_weekend))" operator="lessThan" value="1.5798184"/>
								<Node score="-0.1643651">
									<SimplePredicate field="float(standardScaler(month))" operator="lessThan" value="1.141464"/>
									<Node score="-0.117182136">
										<SimplePredicate field="float(standardScaler(sale_price))" operator="lessThan" value="-0.70691687"/>
									</Node>
								</Node>
								<Node score="-0.12079699">
									<SimplePredicate field="float(standardScaler(day_of_month))" operator="lessThan" value="0.7268293"/>
								</Node>
							</Node>
							<Node score="-0.018992634">
								<SimplePredicate field="float(standardScaler(sale_price))" operator="lessThan" value="1.1314064"/>
								<Node score="-0.08837469">
									<SimplePredicate field="float(standardScaler(month))" operator="lessThan" value="0.84739786"/>
								</Node>
							</Node>
							<Node score="-0.21409087">
								<SimplePredicate field="float(standardScaler(sale_price))" operator="lessThan" value="1.1685178"/>
							</Node>
						</Node>
						<Node score="-0.23844166">
							<SimplePredicate field="float(standardScaler(sale_price))" operator="lessThan" value="1.666181"/>
							<Node score="-0.39268428">
								<SimplePredicate field="product_id" operator="notEqual" value="p102"/>
								<Node score="-0.22975485">
									<SimplePredicate field="float(standardScaler(sale_price))" operator="lessThan" value="1.2789991"/>
								</Node>
							</Node>
							<Node score="-0.1808763">
								<SimplePredicate field="float(standardScaler(sale_price))" operator="lessThan" value="1.4840473"/>
							</Node>
						</Node>
						<Node score="-0.39008054">
							<SimplePredicate field="float(standardScaler(sale_price))" operator="lessThan" value="1.68816"/>
							<Node score="-0.29395887">
								<SimplePredicate field="float(standardScaler(lag_30))" operator="lessThan" value="0.08174617"/>
							</Node>
						</Node>
						<Node score="-0.42187387">
							<SimplePredicate field="float(standardScaler(lag_7))" operator="lessThan" value="1.7222347"/>
						</Node>
					</Node>
				</TreeModel>
			</Segment>
			<Segment id="3">
				<True/>
				<TreeModel functionName="regression" noTrueChildStrategy="returnLastPrediction" x-mathContext="float">
					<MiningSchema>
						<MiningField name="product_id"/>
						<MiningField name="seller_id"/>
						<MiningField name="float(standardScaler(sale_price))"/>
						<MiningField name="float(standardScaler(is_weekend))"/>
						<MiningField name="float(standardScaler(lag_7))"/>
						<MiningField name="float(standardScaler(day_of_month))"/>
						<MiningField name="float(standardScaler(lag_30))"/>
						<MiningField name="float(standardScaler(lag_1))"/>
						<MiningField name="float(standardScaler(month))"/>
					</MiningSchema>
					<Node score="0.20075825">
						<True/>
						<Node score="0.19860587">
							<SimplePredicate field="float(standardScaler(sale_price))" operator="lessThan" value="-0.9217064"/>
							<Node score="-0.28687987">
								<SimplePredicate field="float(standardScaler(is_weekend))" operator="lessThan" value="1.5798184"/>
								<Node score="0.5966688">
									<SimplePredicate field="float(standardScaler(sale_price))" operator="lessThan" value="-0.9470377"/>
									<Node score="0.2079408">
										<SimplePredicate field="seller_id" operator="notEqual" value="seller_1"/>
										<Node score="0.41592288">
											<SimplePredicate field="float(standardScaler(lag_30))" operator="lessThan" value="-0.6482331"/>
											<Node score="0.13308321">
												<SimplePredicate field="float(standardScaler(month))" operator="lessThan" value="-0.9169991"/>
											</Node>
										</Node>
										<Node score="0.35379952">
											<SimplePredicate field="float(standardScaler(month))" operator="lessThan" value="-0.9169991"/>
										</Node>
									</Node>
									<Node score="1.2037318">
										<SimplePredicate field="float(standardScaler(sale_price))" operator="lessThan" value="-0.9475038"/>
										<Node score="0.3302518">
											<SimplePredicate field="float(standardScaler(lag_30))" operator="lessThan" value="5.1916013"/>
										</Node>
									</Node>
									<Node score="0.13608967">
										<SimplePredicate field="float(standardScaler(lag_1))" operator="lessThan" value="-0.46570024"/>
									</Node>
								</Node>
								<Node score="0.13727482">
									<SimplePredicate field="product_id" operator="notEqual" value="p402"/>
									<Node score="0.15108214">
										<SimplePredicate field="float(standardScaler(sale_price))" operator="lessThan" value="-0.9418485"/>
										<Node score="-0.014582554">
											<SimplePredicate field="float(standardScaler(sale_price))" operator="lessThan" value="-0.94638515"/>
										</Node>
									</Node>
									<Node score="-0.14891909">
										<SimplePredicate field="product_id" operator="notEqual" value="p302"/>
									</Node>
								</Node>
								<Node score="0.26882398">
									<SimplePredicate field="float(standardScaler(sale_price))" operator="lessThan" value="-0.9358307"/>
									<Node score="0.51651675">
										<SimplePredicate field="float(standardScaler(sale_price))" operator="lessThan" value="-0.93960094"/>
									</Node>
								</Node>
								<Node score="0.020103691">
									<SimplePredicate field="float(standardScaler(sale_price))" operator="lessThan" value="-0.93505394"/>
								</Node>
							</Node>
							<Node score="0.7334662">
								<SimplePredicate field="float(standardScaler(sale_price))" operator="lessThan" value="-0.93861693"/>
								<Node score="-0.00855397">
									<SimplePredicate field="seller_id" operator="notEqual" value="seller_1"/>
									<Node score="0.4053646">
										<SimplePredicate field="product_id" operator="notEqual" value="p400"/>
										<Node score="0.50521415">
											<SimplePredicate field="float(standardScaler(lag_1))" operator="lessThan" value="0.994282"/>
										</Node>
									</Node>
									<Node score="0.3295355">
										<SimplePredicate field="float(standardScaler(sale_price))" operator="lessThan" value="-0.94418937"/>
									</Node>
								</Node>
								<Node score="1.0547291">
									<SimplePredicate field="float(standardScaler(sale_price))" operator="lessThan" value="-0.949306"/>
									<Node score="0.7101705">
										<SimplePredicate field="float(standardScaler(lag_30))" operator="lessThan" value="1.5417048"/>
									</Node>
								</Node>
								<Node score="0.46519038">
									<SimplePredicate field="float(standardScaler(sale_price))" operator="lessThan" value="-0.9411235"/>
								</Node>
							</Node>
							<Node score="-0.10063554">
								<SimplePredicate field="seller_id" operator="notEqual" value="seller_1"/>
								<Node score="0.09417339">
									<SimplePredicate field="float(standardScaler(day_of_month))" operator="lessThan" value="0.4979128"/>
									<Node score="-0.15018825">
										<SimplePredicate field="float(standardScaler(sale_price))" operator="lessThan" value="-0.92316854"/>
									</Node>
								</Node>
								<Node score="0.21356364">
									<SimplePredicate field="float(standardScaler(lag_1))" operator="lessThan" value="1.3592776"/>
								</Node>
							</Node>
							<Node score="-0.073662095">
								<SimplePredicate field="float(standardScaler(day_of_month))" operator="lessThan" value="-1.5623358"/>
								<Node score="-0.37981656">
									<SimplePredicate field="float(standardScaler(sale_price))" operator="lessThan" value="-0.9220862"/>
								</Node>
							</Node>
							<Node score="0.45412555">
								<SimplePredicate field="float(standardScaler(month))" operator="lessThan" value="-0.622933"/>
							</Node>
						</Node>
						<Node score="0.17217204">
							<SimplePredicate field="float(standardScaler(sale_price))" operator="lessThan" value="-0.80719936"/>
							<Node score="0.046610024">
								<SimplePredicate field="seller_id" operator="notEqual" value="seller_1"/>
								<Node score="-0.39215878">
									<SimplePredicate field="product_id" operator="notEqual" value="p301"/>
									<Node score="0.119389415">
										<SimplePredicate field="float(standardScaler(sale_price))" operator="lessThan" value="-0.9172181"/>
										<Node score="-0.0196688">
											<SimplePredicate field="float(standardScaler(lag_1))" operator="lessThan" value="1.5417753"/>
										</Node>
									</Node>
									<Node score="-0.20748559">
										<SimplePredicate field="float(standardScaler(sale_price))" operator="lessThan" value="-0.9165552"/>
									</Node>
								</Node>
								<Node score="0.5971354">
									<SimplePredicate field="float(standardScaler(sale_price))" operator="lessThan" value="-0.8179506"/>
									<Node score="0.0873883">
										<SimplePredicate field="float(standardScaler(lag_30))" operator="lessThan" value="2.8191686"/>
									</Node>
								</Node>
								<Node score="-0.030305317">
									<SimplePredicate field="float(standardScaler(lag_1))" operator="lessThan" value="0.44678867"/>
								</Node>
							</Node>
							<Node score="0.2832459">
								<SimplePredicate field="float(standardScaler(is_weekend))" operator="lessThan" value="1.5798184"/>
								<Node score="-0.041310992">
									<SimplePredicate field="float(standardScaler(sale_price))" operator="lessThan" value="-0.81364185"/>
									<Node score="0.06370684">
										<SimplePredicate field="float(standardScaler(sale_price))" operator="lessThan" value="-0.91765827"/>
									</Node>
								</Node>
								<Node score="0.09401811">
									<SimplePredicate field="float(standardScaler(lag_7))" operator="lessThan" value="1.5398171"/>
								</Node>
							</Node>
							<Node score="0.5483073">
								<SimplePredicate field="float(standardScaler(day_of_month))" operator="lessThan" value="-1.1045028"/>
								<Node score="0.0023318941">
									<SimplePredicate field="float(standardScaler(lag_7))" operator="lessThan" value="3.5464115"/>
								</Node>
							</Node>
							<Node score="0.40260115">
								<SimplePredicate field="float(standardScaler(sale_price))" operator="lessThan" value="-0.9206672"/>
							</Node>
						</Node>
						<Node score="-0.3269389">
							<SimplePredicate field="float(standardScaler(sale_price))" operator="lessThan" value="1.2465315"/>
							<Node score="-0.006901902">
								<SimplePredicate field="float(standardScaler(is_weekend))" operator="lessThan" value="1.5798184"/>
								<Node score="-0.10007485">
									<SimplePredicate field="float(standardScaler(month))" operator="lessThan" value="1.4355302"/>
									<Node score="-0.14740716">
										<SimplePredicate field="seller_id" operator="notEqual" value="seller_1"/>
									</Node>
								</Node>
								<Node score="-0.10275582">
									<SimplePredicate field="float(standardScaler(day_of_month))" operator="lessThan" value="0.7268293"/>
								</Node>
							</Node>
							<Node score="-0.0047744135">
								<SimplePredicate field="float(standardScaler(sale_price))" operator="lessThan" value="1.1314064"/>
								<Node score="-0.07879523">
									<SimplePredicate field="seller_id" operator="notEqual" value="seller_1"/>
								</Node>
							</Node>
							<Node score="-0.19280773">
								<SimplePredicate field="float(standardScaler(sale_price))" operator="lessThan" value="1.1685178"/>
							</Node>
						</Node>
						<Node score="-0.21460967">
							<SimplePredicate field="float(standardScaler(sale_price))" operator="lessThan" value="1.666181"/>
							<Node score="-0.38434586">
								<SimplePredicate field="product_id" operator="notEqual" value="p102"/>
								<Node score="-0.22169761">
									<SimplePredicate field="float(standardScaler(sale_price))" operator="lessThan" value="1.2908621"/>
								</Node>
							</Node>
							<Node score="-0.16280323">
								<SimplePredicate field="float(standardScaler(sale_price))" operator="lessThan" value="1.4840473"/>
							</Node>
						</Node>
						<Node score="-0.35246563">
							<SimplePredicate field="float(standardScaler(sale_price))" operator="lessThan" value="1.68816"/>
							<Node score="-0.26482314">
								<SimplePredicate field="float(standardScaler(lag_30))" operator="lessThan" value="0.08174617"/>
							</Node>
						</Node>
						<Node score="-0.37985587">
							<SimplePredicate field="float(standardScaler(lag_7))" operator="lessThan" value="1.7222347"/>
						</Node>
					</Node>
				</TreeModel>
			</Segment>
			<Segment id="4">
				<True/>
				<TreeModel functionName="regression" noTrueChildStrategy="returnLastPrediction" x-mathContext="float">
					<MiningSchema>
						<MiningField name="product_id"/>
						<MiningField name="seller_id"/>
						<MiningField name="float(standardScaler(sale_price))"/>
						<MiningField name="float(standardScaler(is_weekend))"/>
						<MiningField name="float(standardScaler(lag_7))"/>
						<MiningField name="float(standardScaler(day_of_month))"/>
						<MiningField name="float(standardScaler(lag_30))"/>
						<MiningField name="float(standardScaler(lag_1))"/>
						<MiningField name="float(standardScaler(month))"/>
					</MiningSchema>
					<Node score="0.4327105">
						<True/>
						<Node score="-0.2170053">
							<SimplePredicate field="float(standardScaler(sale_price))" operator="lessThan" value="-0.9358307"/>
							<Node score="-0.12804578">
								<SimplePredicate field="float(standardScaler(is_weekend))" operator="lessThan" value="1.5798184"/>
								<Node score="0.38457826">
									<SimplePredicate field="product_id" operator="notEqual" value="p400"/>
									<Node score="0.2348775">
										<SimplePredicate field="seller_id" operator="notEqual" value="seller_1"/>
										<Node score="0.40878734">
											<SimplePredicate field="float(standardScaler(day_of_month))" operator="lessThan" value="-1.218961"/>
											<Node score="0.18812342">
												<SimplePredicate field="float(standardScaler(sale_price))" operator="lessThan" value="-0.9412685"/>
											</Node>
										</Node>
										<Node score="0.15554254">
											<SimplePredicate field="float(standardScaler(day_of_month))" operator="lessThan" value="0.7268293"/>
										</Node>
									</Node>
									<Node score="-0.024645848">
										<SimplePredicate field="float(standardScaler(lag_7))" operator="lessThan" value="0.44531104"/>
										<Node score="0.39208913">
											<SimplePredicate field="float(standardScaler(lag_1))" operator="lessThan" value="4.0967445"/>
										</Node>
									</Node>
									<Node score="0.20219807">
										<SimplePredicate field="float(standardScaler(day_of_month))" operator="lessThan" value="0.4979128"/>
									</Node>
								</Node>
								<Node score="-0.015205301">
									<SimplePredicate field="float(standardScaler(sale_price))" operator="lessThan" value="-0.9414964"/>
									<Node score="0.22634895">
										<SimplePredicate field="float(standardScaler(sale_price))" operator="lessThan" value="-0.94200045"/>
										<Node score="0.11574159">
											<SimplePredicate field="seller_id" operator="notEqual" value="seller_1"/>
										</Node>
									</Node>
									<Node score="0.13964346">
										<SimplePredicate field="float(standardScaler(day_of_month))" operator="lessThan" value="-0.99004453"/>
									</Node>
								</Node>
								<Node score="-0.24960218">
									<SimplePredicate field="float(standardScaler(sale_price))" operator="lessThan" value="-0.9412685"/>
									<Node score="-0.09961951">
										<SimplePredicate field="float(standardScaler(lag_7))" operator="lessThan" value="0.8101464"/>
									</Node>
								</Node>
								<Node score="-0.34836632">
									<SimplePredicate field="float(standardScaler(lag_1))" operator="lessThan" value="2.4542644"/>
								</Node>
							</Node>
							<Node score="-0.28107765">
								<SimplePredicate field="seller_id" operator="notEqual" value="seller_1"/>
								<Node score="0.38783994">
									<SimplePredicate field="product_id" operator="notEqual" value="p400"/>
									<Node score="0.4083027">
										<SimplePredicate field="float(standardScaler(sale_price))" operator="lessThan" value="-0.9382026"/>
										<Node score="0.67141604">
											<SimplePredicate field="float(standardScaler(day_of_month))" operator="lessThan" value="-1.5623358"/>
										</Node>
									</Node>
									<Node score="-0.2230042">
										<SimplePredicate field="float(standardScaler(lag_30))" operator="lessThan" value="3.366653"/>
									</Node>
								</Node>
								<Node score="0.32717437">
									<SimplePredicate field="float(standardScaler(sale_price))" operator="lessThan" value="-0.94418937"/>
									<Node score="-0.05758503">
										<SimplePredicate field="float(standardScaler(sale_price))" operator="lessThan" value="-0.9465716"/>
									</Node>
								</Node>
								<Node score="0.07356777">
									<SimplePredicate field="float(standardScaler(sale_price))" operator="lessThan" value="-0.9436922"/>
								</Node>
							</Node>
							<Node score="0.5310859">
								<SimplePredicate field="float(standardScaler(day_of_month))" operator="lessThan" value="1.6424954"/>
								<Node score="0.577842">
									<SimplePredicate field="float(standardScaler(sale_price))" operator="lessThan" value="-0.94907403"/>
									<Node score="0.8475197">
										<SimplePredicate field="float(standardScaler(day_of_month))" operator="lessThan" value="-0.303295"/>
									</Node>
								</Node>
								<Node score="0.1469076">
									<SimplePredicate field="float(standardScaler(sale_price))" operator="lessThan" value="-0.94638515"/>
								</Node>
							</Node>
							<Node score="1.4370911">
								<SimplePredicate field="float(standardScaler(lag_7))" operator="lessThan" value="2.6343231"/>
								<Node score="0.6283448">
									<SimplePredicate field="float(standardScaler(lag_7))" operator="lessThan" value="-0.28435963"/>
								</Node>
							</Node>
							<Node score="0.6431927">
								<SimplePredicate field="float(standardScaler(lag_30))" operator="lessThan" value="0.26424098"/>
							</Node>
						</Node>
						<Node score="1.4913497">
							<SimplePredicate field="float(standardScaler(sale_price))" operator="lessThan" value="-0.80719936"/>
							<Node score="-0.20364897">
								<SimplePredicate field="seller_id" operator="notEqual" value="seller_1"/>
								<Node score="-0.0047488166">
									<SimplePredicate field="float(standardScaler(day_of_month))" operator="lessThan" value="0.84128755"/>
									<Node score="-0.022645121">
										<SimplePredicate field="float(standardScaler(lag_1))" operator="lessThan" value="3.1842554"/>
										<Node score="0.033076677">
											<SimplePredicate field="float(standardScaler(day_of_month))" operator="lessThan" value="-1.218961"/>
										</Node>
									</Node>
									<Node score="0.5325781">
										<SimplePredicate field="seller_id" operator="notEqual" value="seller_4"/>
									</Node>
								</Node>
								<Node score="0.12355919">
									<SimplePredicate field="float(standardScaler(sale_price))" operator="lessThan" value="-0.81364185"/>
									<Node score="0.03944213">
										<SimplePredicate field="float(standardScaler(month))" operator="lessThan" value="0.84739786"/>
									</Node>
								</Node>
								<Node score="0.008424318">
									<SimplePredicate field="float(standardScaler(day_of_month))" operator="lessThan" value="1.0702041"/>
								</Node>
							</Node>
							<Node score="-0.014524619">
								<SimplePredicate field="float(standardScaler(is_weekend))" operator="lessThan" value="1.5798184"/>
								<Node score="0.10224684">
									<SimplePredicate field="float(standardScaler(lag_7))" operator="lessThan" value="3.3639936"/>
									<Node score="0.031107513">
										<SimplePredicate field="float(standardScaler(sale_price))" operator="lessThan" value="-0.81364185"/>
									</Node>
								</Node>
								<Node score="-0.34910706">
									<SimplePredicate field="product_id" operator="notEqual" value="p301"/>
								</Node>
							</Node>
							<Node score="-0.16909578">
								<SimplePredicate field="float(standardScaler(day_of_month))" operator="lessThan" value="1.7569536"/>
								<Node score="0.17818734">
									<SimplePredicate field="float(standardScaler(sale_price))" operator="lessThan" value="-0.81364185"/>
								</Node>
							</Node>
							<Node score="0.30115774">
								<SimplePredicate field="float(standardScaler(lag_30))" operator="lessThan" value="0.8117255"/>
							</Node>
						</Node>
						<Node score="-0.06717333">
							<SimplePredicate field="float(standardScaler(sale_price))" operator="lessThan" value="1.2465315"/>
							<Node score="-0.2417109">
								<SimplePredicate field="float(standardScaler(month))" operator="lessThan" value="1.4355302"/>
								<Node score="-0.046940953">
									<SimplePredicate field="float(standardScaler(sale_price))" operator="lessThan" value="-0.70691687"/>
									<Node score="-0.21952617">
										<SimplePredicate field="product_id" operator="notEqual" value="p300"/>
									</Node>
								</Node>
								<Node score="-0.11425072">
									<SimplePredicate field="product_id" operator="notEqual" value="p300"/>
								</Node>
							</Node>
							<Node score="-0.050480086">
								<SimplePredicate field="float(standardScaler(day_of_month))" operator="lessThan" value="0.7268293"/>
								<Node score="-0.13109843">
									<SimplePredicate field="float(standardScaler(sale_price))" operator="lessThan" value="0.47072452"/>
								</Node>
							</Node>
							<Node score="0.04299016">
								<SimplePredicate field="float(standardScaler(sale_price))" operator="lessThan" value="0.98471135"/>
							</Node>
						</Node>
						<Node score="-0.071403764">
							<SimplePredicate field="float(standardScaler(sale_price))" operator="lessThan" value="1.6501336"/>
							<Node score="-0.32027516">
								<SimplePredicate field="product_id" operator="notEqual" value="p102"/>
								<Node score="-0.18470079">
									<SimplePredicate field="float(standardScaler(sale_price))" operator="lessThan" value="1.2789991"/>
								</Node>
							</Node>
							<Node score="-0.17900178">
								<SimplePredicate field="float(standardScaler(month))" operator="lessThan" value="1.7295964"/>
							</Node>
						</Node>
						<Node score="-0.34202287">
							<SimplePredicate field="float(standardScaler(lag_7))" operator="lessThan" value="1.7222347"/>
							<Node score="-0.25555864">
								<SimplePredicate field="float(standardScaler(sale_price))" operator="lessThan" value="1.68816"/>
							</Node>
						</Node>
						<Node score="-0.19165461">
							<SimplePredicate field="float(standardScaler(day_of_month))" operator="lessThan" value="-0.8755863"/>
						</Node>
					</Node>
				</TreeModel>
			</Segment>
			<Segment id="5">
				<True/>
				<TreeModel functionName="regression" noTrueChildStrategy="returnLastPrediction" x-mathContext="float">
					<MiningSchema>
						<MiningField name="product_id"/>
						<MiningField name="seller_id"/>
						<MiningField name="float(standardScaler(sale_price))"/>
						<MiningField name="float(standardScaler(is_weekend))"/>
						<MiningField name="float(standardScaler(lag_7))"/>
						<MiningField name="float(standardScaler(day_of_month))"/>
						<MiningField name="float(standardScaler(lag_30))"/>
						<MiningField name="float(standardScaler(lag_1))"/>
						<MiningField name="float(standardScaler(month))"/>
						<MiningField name="float(standardScaler(day_of_week))"/>
					</MiningSchema>
					<Node score="0.4038631">
						<True/>
						<Node score="0.07553539">
							<SimplePredicate field="float(standardScaler(sale_price))" operator="lessThan" value="-0.9217064"/>
							<Node score="-0.26524553">
								<SimplePredicate field="float(standardScaler(is_weekend))" operator="lessThan" value="1.5798184"/>
								<Node score="0.35353583">
									<SimplePredicate field="float(standardScaler(sale_price))" operator="lessThan" value="-0.9468927"/>
									<Node score="0.10497242">
										<SimplePredicate field="seller_id" operator="notEqual" value="seller_1"/>
										<Node score="-0.103812635">
											<SimplePredicate field="float(standardScaler(lag_30))" operator="lessThan" value="1.5417048"/>
											<Node score="0.22592628">
												<SimplePredicate field="float(standardScaler(lag_1))" operator="lessThan" value="3.7317488"/>
											</Node>
										</Node>
										<Node score="0.291132">
											<SimplePredicate field="float(standardScaler(month))" operator="lessThan" value="-0.9169991"/>
										</Node>
									</Node>
									<Node score="0.53355736">
										<SimplePredicate field="float(standardScaler(lag_7))" operator="lessThan" value="0.6277287"/>
										<Node score="0.3115237">
											<SimplePredicate field="float(standardScaler(sale_price))" operator="lessThan" value="-0.9475038"/>
										</Node>
									</Node>
									<Node score="0.13629274">
										<SimplePredicate field="float(standardScaler(lag_1))" operator="lessThan" value="0.62928647"/>
									</Node>
								</Node>
								<Node score="-0.12703529">
									<SimplePredicate field="product_id" operator="notEqual" value="p401"/>
									<Node score="-0.031045381">
										<SimplePredicate field="product_id" operator="notEqual" value="p402"/>
										<Node score="0.12172613">
											<SimplePredicate field="float(standardScaler(sale_price))" operator="lessThan" value="-0.9418485"/>
										</Node>
									</Node>
									<Node score="0.22124648">
										<SimplePredicate field="float(standardScaler(sale_price))" operator="lessThan" value="-0.9355511"/>
									</Node>
								</Node>
								<Node score="0.23563941">
									<SimplePredicate field="float(standardScaler(sale_price))" operator="lessThan" value="-0.9465716"/>
									<Node score="-0.060978055">
										<SimplePredicate field="float(standardScaler(lag_7))" operator="lessThan" value="2.4519055"/>
									</Node>
								</Node>
								<Node score="-0.40646225">
									<SimplePredicate field="seller_id" operator="notEqual" value="seller_1"/>
								</Node>
							</Node>
							<Node score="0.9315516">
								<SimplePredicate field="float(standardScaler(sale_price))" operator="lessThan" value="-0.93861693"/>
								<Node score="-0.007191167">
									<SimplePredicate field="seller_id" operator="notEqual" value="seller_1"/>
									<Node score="0.28701422">
										<SimplePredicate field="product_id" operator="notEqual" value="p400"/>
										<Node score="0.40226084">
											<SimplePredicate field="float(standardScaler(lag_7))" operator="lessThan" value="2.08707"/>
										</Node>
									</Node>
									<Node score="0.26699978">
										<SimplePredicate field="float(standardScaler(sale_price))" operator="lessThan" value="-0.94418937"/>
									</Node>
								</Node>
								<Node score="-0.027672768">
									<SimplePredicate field="float(standardScaler(lag_1))" operator="lessThan" value="-1.0131936"/>
									<Node score="-0.3976504">
										<SimplePredicate field="float(standardScaler(day_of_week))" operator="lessThan" value="1.4990408"/>
									</Node>
								</Node>
								<Node score="0.5037785">
									<SimplePredicate field="float(standardScaler(day_of_month))" operator="lessThan" value="1.6424954"/>
								</Node>
							</Node>
							<Node score="-0.010767222">
								<SimplePredicate field="float(standardScaler(day_of_month))" operator="lessThan" value="0.4979128"/>
								<Node score="-0.21922557">
									<SimplePredicate field="float(standardScaler(sale_price))" operator="lessThan" value="-0.92316854"/>
									<Node score="0.15722284">
										<SimplePredicate field="float(standardScaler(sale_price))" operator="lessThan" value="-0.9382026"/>
									</Node>
								</Node>
								<Node score="0.17640337">
									<SimplePredicate field="float(standardScaler(day_of_month))" operator="lessThan" value="-0.07437848"/>
								</Node>
							</Node>
							<Node score="0.022619987">
								<SimplePredicate field="float(standardScaler(lag_30))" operator="lessThan" value="0.26424098"/>
								<Node score="0.21244954">
									<SimplePredicate field="float(standardScaler(lag_1))" operator="lessThan" value="-0.28320247"/>
								</Node>
							</Node>
							<Node score="0.40288907">
								<SimplePredicate field="seller_id" operator="notEqual" value="seller_4"/>
							</Node>
						</Node>
						<Node score="0.17107509">
							<SimplePredicate field="float(standardScaler(sale_price))" operator="lessThan" value="-0.80719936"/>
							<Node score="0.36944407">
								<SimplePredicate field="float(standardScaler(lag_1))" operator="lessThan" value="1.3592776"/>
								<Node score="-0.013693127">
									<SimplePredicate field="seller_id" operator="notEqual" value="seller_1"/>
									<Node score="-0.22208802">
										<SimplePredicate field="product_id" operator="notEqual" value="p301"/>
										<Node score="-0.006906091">
											<SimplePredicate field="float(standardScaler(sale_price))" operator="lessThan" value="-0.91765827"/>
										</Node>
									</Node>
									<Node score="0.06531339">
										<SimplePredicate field="float(standardScaler(sale_price))" operator="lessThan" value="-0.8179506"/>
									</Node>
								</Node>
								<Node score="-0.05814693">
									<SimplePredicate field="float(standardScaler(is_weekend))" operator="lessThan" value="1.5798184"/>
									<Node score="0.039987188">
										<SimplePredicate field="float(standardScaler(lag_1))" operator="lessThan" value="0.62928647"/>
									</Node>
								</Node>
								<Node score="0.09989264">
									<SimplePredicate field="float(standardScaler(day_of_month))" operator="lessThan" value="1.0702041"/>
								</Node>
							</Node>
							<Node score="0.28844848">
								<SimplePredicate field="float(standardScaler(month))" operator="lessThan" value="-0.9169991"/>
								<Node score="0.49016687">
									<SimplePredicate field="float(standardScaler(day_of_month))" operator="lessThan" value="-1.4478775"/>
								</Node>
								<Node score="-0.12985699">
									<SimplePredicate field="float(standardScaler(lag_1))" operator="lessThan" value="3.1842554"/>
								</Node>
							</Node>
							<Node score="0.88772535">
								<SimplePredicate field="float(standardScaler(month))" operator="lessThan" value="-0.3288668"/>
								<Node score="0.24974671">
									<SimplePredicate field="float(standardScaler(lag_30))" operator="lessThan" value="1.5417048"/>
								</Node>
							</Node>
							<Node score="0.025769163">
								<SimplePredicate field="float(standardScaler(lag_30))" operator="lessThan" value="0.6292306"/>
							</Node>
						</Node>
						<Node score="-0.09282027">
							<SimplePredicate field="float(standardScaler(sale_price))" operator="lessThan" value="1.2465315"/>
							<Node score="0.024838045">
								<SimplePredicate field="float(standardScaler(is_weekend))" operator="lessThan" value="1.5798184"/>
								<Node score="-0.06666113">
									<SimplePredicate field="float(standardScaler(sale_price))" operator="lessThan" value="1.1849139"/>
									<Node score="-0.12864509">
										<SimplePredicate field="float(standardScaler(day_of_month))" operator="lessThan" value="0.9557458"/>
									</Node>
								</Node>
								<Node score="-0.06331591">
									<SimplePredicate field="float(standardScaler(month))" operator="lessThan" value="1.4355302"/>
								</Node>
							</Node>
							<Node score="0.0013950298">
								<SimplePredicate field="float(standardScaler(sale_price))" operator="lessThan" value="1.143788"/>
								<Node score="-0.06300532">
									<SimplePredicate field="seller_id" operator="notEqual" value="seller_1"/>
								</Node>
							</Node>
							<Node score="-0.25944325">
								<SimplePredicate field="float(standardScaler(day_of_month))" operator="lessThan" value="1.2991205"/>
							</Node>
						</Node>
						<Node score="-0.064298205">
							<SimplePredicate field="float(standardScaler(sale_price))" operator="lessThan" value="1.6501336"/>
							<Node score="-0.35284323">
								<SimplePredicate field="product_id" operator="notEqual" value="p102"/>
								<Node score="-0.18863688">
									<SimplePredicate field="float(standardScaler(sale_price))" operator="lessThan" value="1.3069992"/>
								</Node>
							</Node>
							<Node score="-0.16110785">
								<SimplePredicate field="float(standardScaler(month))" operator="lessThan" value="1.7295964"/>
							</Node>
						</Node>
						<Node score="-0.30795795">
							<SimplePredicate field="float(standardScaler(lag_7))" operator="lessThan" value="1.7222347"/>
							<Node score="-0.23009503">
								<SimplePredicate field="float(standardScaler(sale_price))" operator="lessThan" value="1.68816"/>
							</Node>
						</Node>
						<Node score="-0.18207188">
							<SimplePredicate field="float(standardScaler(day_of_month))" operator="lessThan" value="-0.8755863"/>
						</Node>
					</Node>
				</TreeModel>
			</Segment>
			<Segment id="6">
				<True/>
				<TreeModel functionName="regression" noTrueChildStrategy="returnLastPrediction" x-mathContext="float">
					<MiningSchema>
						<MiningField name="product_id"/>
						<MiningField name="seller_id"/>
						<MiningField name="float(standardScaler(sale_price))"/>
						<MiningField name="float(standardScaler(is_weekend))"/>
						<MiningField name="float(standardScaler(lag_7))"/>
						<MiningField name="float(standardScaler(day_of_month))"/>
						<MiningField name="float(standardScaler(lag_30))"/>
						<MiningField name="float(standardScaler(lag_1))"/>
						<MiningField name="float(standardScaler(month))"/>
						<MiningField name="float(standardScaler(day_of_week))"/>
						<MiningField name="float(standardScaler(original_price))"/>
					</MiningSchema>
					<Node score="0.3769389">
						<True/>
						<Node score="0.7940889">
							<SimplePredicate field="float(standardScaler(sale_price))" operator="lessThan" value="-0.9217064"/>
							<Node score="0.12162824">
								<SimplePredicate field="float(standardScaler(is_weekend))" operator="lessThan" value="1.5798184"/>
								<Node score="-0.3008271">
									<SimplePredicate field="float(standardScaler(sale_price))" operator="lessThan" value="-0.9468927"/>
									<Node score="-0.23801835">
										<SimplePredicate field="seller_id" operator="notEqual" value="seller_1"/>
										<Node score="0.21499352">
											<SimplePredicate field="float(standardScaler(sale_price))" operator="lessThan" value="-0.94770503"/>
											<Node score="0.06476452">
												<SimplePredicate field="float(standardScaler(day_of_month))" operator="lessThan" value="0.38345453"/>
											</Node>
										</Node>
										<Node score="0.23748694">
											<SimplePredicate field="float(standardScaler(day_of_month))" operator="lessThan" value="1.0702041"/>
										</Node>
									</Node>
									<Node score="0.23484531">
										<SimplePredicate field="float(standardScaler(lag_1))" operator="lessThan" value="4.0967445"/>
										<Node score="0.37750426">
											<SimplePredicate field="float(standardScaler(lag_7))" operator="lessThan" value="0.6277287"/>
										</Node>
									</Node>
									<Node score="0.13667974">
										<SimplePredicate field="float(standardScaler(day_of_week))" operator="lessThan" value="-4.857688E-4"/>
									</Node>
								</Node>
								<Node score="-0.29906258">
									<SimplePredicate field="float(standardScaler(original_price))" operator="lessThan" value="-0.93975896"/>
									<Node score="0.09833741">
										<SimplePredicate field="float(standardScaler(sale_price))" operator="lessThan" value="-0.9414964"/>
										<Node score="-0.13168328">
											<SimplePredicate field="product_id" operator="notEqual" value="p400"/>
										</Node>
									</Node>
									<Node score="-0.13437222">
										<SimplePredicate field="float(standardScaler(sale_price))" operator="lessThan" value="-0.9412685"/>
									</Node>
								</Node>
								<Node score="0.20392583">
									<SimplePredicate field="float(standardScaler(sale_price))" operator="lessThan" value="-0.9360358"/>
									<Node score="0.41684547">
										<SimplePredicate field="float(standardScaler(sale_price))" operator="lessThan" value="-0.93960094"/>
									</Node>
								</Node>
								<Node score="-0.0054552066">
									<SimplePredicate field="product_id" operator="notEqual" value="p302"/>
								</Node>
							</Node>
							<Node score="0.35824135">
								<SimplePredicate field="float(standardScaler(sale_price))" operator="lessThan" value="-0.93892765"/>
								<Node score="0.3829978">
									<SimplePredicate field="seller_id" operator="notEqual" value="seller_1"/>
									<Node score="0.19762014">
										<SimplePredicate field="float(standardScaler(sale_price))" operator="lessThan" value="-0.9412685"/>
										<Node score="0.40288916">
											<SimplePredicate field="float(standardScaler(sale_price))" operator="lessThan" value="-0.949306"/>
										</Node>
									</Node>
									<Node score="0.6841529">
										<SimplePredicate field="float(standardScaler(lag_7))" operator="lessThan" value="-0.64919496"/>
									</Node>
								</Node>
								<Node score="-0.02559731">
									<SimplePredicate field="float(standardScaler(lag_1))" operator="lessThan" value="-1.0131936"/>
									<Node score="-0.36451283">
										<SimplePredicate field="float(standardScaler(day_of_week))" operator="lessThan" value="1.4990408"/>
									</Node>
								</Node>
								<Node score="0.5440317">
									<SimplePredicate field="product_id" operator="notEqual" value="p400"/>
								</Node>
							</Node>
							<Node score="0.2935488">
								<SimplePredicate field="float(standardScaler(lag_30))" operator="lessThan" value="3.9141376"/>
								<Node score="0.012865086">
									<SimplePredicate field="seller_id" operator="notEqual" value="seller_1"/>
									<Node score="0.14099002">
										<SimplePredicate field="float(standardScaler(lag_1))" operator="lessThan" value="-0.100704685"/>
									</Node>
								</Node>
								<Node score="0.08833384">
									<SimplePredicate field="float(standardScaler(lag_7))" operator="lessThan" value="0.44531104"/>
								</Node>
							</Node>
						</Node>
						<Node score="0.009392088">
							<SimplePredicate field="float(standardScaler(sale_price))" operator="lessThan" value="-0.70691687"/>
							<Node score="0.06011085">
								<SimplePredicate field="float(standardScaler(sale_price))" operator="lessThan" value="-0.80719936"/>
								<Node score="0.1233462">
									<SimplePredicate field="float(standardScaler(lag_1))" operator="lessThan" value="1.3592776"/>
									<Node score="0.013175535">
										<SimplePredicate field="seller_id" operator="notEqual" value="seller_1"/>
										<Node score="-0.03774626">
											<SimplePredicate field="product_id" operator="notEqual" value="p301"/>
										</Node>
									</Node>
									<Node score="0.018682575">
										<SimplePredicate field="float(standardScaler(is_weekend))" operator="lessThan" value="1.5798184"/>
									</Node>
								</Node>
								<Node score="-0.09432239">
									<SimplePredicate field="float(standardScaler(month))" operator="lessThan" value="-0.9169991"/>
									<Node score="0.4534044">
										<SimplePredicate field="float(standardScaler(day_of_month))" operator="lessThan" value="-1.4478775"/>
									</Node>
								</Node>
								<Node score="0.2534357">
									<SimplePredicate field="float(standardScaler(month))" operator="lessThan" value="-0.3288668"/>
								</Node>
							</Node>
							<Node score="0.0069199326">
								<SimplePredicate field="product_id" operator="notEqual" value="p300"/>
								<Node score="-0.23716664">
									<SimplePredicate field="float(standardScaler(sale_price))" operator="lessThan" value="-0.80266273"/>
									<Node score="-0.12352484">
										<SimplePredicate field="float(standardScaler(lag_7))" operator="lessThan" value="0.8101464"/>
									</Node>
								</Node>
								<Node score="-0.4441534">
									<SimplePredicate field="float(standardScaler(lag_7))" operator="lessThan" value="1.5398171"/>
								</Node>
							</Node>
							<Node score="-0.062568046">
								<SimplePredicate field="seller_id" operator="notEqual" value="seller_1"/>
								<Node score="0.027821789">
									<SimplePredicate field="float(standardScaler(sale_price))" operator="lessThan" value="-0.7347167"/>
								</Node>
							</Node>
							<Node score="0.12874618">
								<SimplePredicate field="float(standardScaler(day_of_month))" operator="lessThan" value="-0.99004453"/>
							</Node>
						</Node>
						<Node score="-0.31141886">
							<SimplePredicate field="float(standardScaler(sale_price))" operator="lessThan" value="1.2526631"/>
							<Node score="-0.33308542">
								<SimplePredicate field="float(standardScaler(month))" operator="lessThan" value="1.4355302"/>
								<Node score="-0.018753072">
									<SimplePredicate field="product_id" operator="notEqual" value="p300"/>
									<Node score="-0.09867751">
										<SimplePredicate field="float(standardScaler(day_of_month))" operator="lessThan" value="1.6424954"/>
									</Node>
								</Node>
								<Node score="-0.14247279">
									<SimplePredicate field="float(standardScaler(sale_price))" operator="lessThan" value="-0.70124084"/>
								</Node>
							</Node>
							<Node score="-0.028333753">
								<SimplePredicate field="product_id" operator="notEqual" value="p300"/>
								<Node score="0.079380386">
									<SimplePredicate field="float(standardScaler(sale_price))" operator="lessThan" value="0.5367233"/>
								</Node>
							</Node>
							<Node score="-0.028203154">
								<SimplePredicate field="float(standardScaler(sale_price))" operator="lessThan" value="-0.70364386"/>
							</Node>
						</Node>
						<Node score="-0.08559649">
							<SimplePredicate field="float(standardScaler(sale_price))" operator="lessThan" value="1.6501336"/>
							<Node score="-0.31778508">
								<SimplePredicate field="product_id" operator="notEqual" value="p102"/>
								<Node score="-0.18063502">
									<SimplePredicate field="float(standardScaler(sale_price))" operator="lessThan" value="1.3069992"/>
								</Node>
							</Node>
							<Node score="-0.14783543">
								<SimplePredicate field="float(standardScaler(month))" operator="lessThan" value="1.4355302"/>
							</Node>
						</Node>
						<Node score="-0.2772858">
							<SimplePredicate field="float(standardScaler(lag_7))" operator="lessThan" value="1.7222347"/>
							<Node score="-0.20716861">
								<SimplePredicate field="float(standardScaler(sale_price))" operator="lessThan" value="1.68816"/>
							</Node>
						</Node>
						<Node score="-0.1729683">
							<SimplePredicate field="float(standardScaler(day_of_month))" operator="lessThan" value="-0.8755863"/>
						</Node>
					</Node>
				</TreeModel>
			</Segment>
			<Segment id="7">
				<True/>
				<TreeModel functionName="regression" noTrueChildStrategy="returnLastPrediction" x-mathContext="float">
					<MiningSchema>
						<MiningField name="product_id"/>
						<MiningField name="seller_id"/>
						<MiningField name="float(standardScaler(sale_price))"/>
						<MiningField name="float(standardScaler(is_weekend))"/>
						<MiningField name="float(standardScaler(lag_7))"/>
						<MiningField name="float(standardScaler(day_of_month))"/>
						<MiningField name="float(standardScaler(lag_30))"/>
						<MiningField name="float(standardScaler(lag_1))"/>
						<MiningField name="float(standardScaler(month))"/>
						<MiningField name="float(standardScaler(original_price))"/>
					</MiningSchema>
					<Node score="-0.24762952">
						<True/>
						<Node score="0.06085374">
							<SimplePredicate field="float(standardScaler(sale_price))" operator="lessThan" value="-0.9217064"/>
							<Node score="0.10951066">
								<SimplePredicate field="float(standardScaler(is_weekend))" operator="lessThan" value="1.5798184"/>
								<Node score="-0.20025113">
									<SimplePredicate field="float(standardScaler(sale_price))" operator="lessThan" value="-0.94717234"/>
									<Node score="0.27294782">
										<SimplePredicate field="float(standardScaler(sale_price))" operator="lessThan" value="-0.94770503"/>
										<Node score="0.037124034">
											<SimplePredicate field="float(standardScaler(day_of_month))" operator="lessThan" value="0.7268293"/>
											<Node score="0.4180883">
												<SimplePredicate field="float(standardScaler(sale_price))" operator="lessThan" value="-0.949306"/>
											</Node>
										</Node>
										<Node score="0.11950084">
											<SimplePredicate field="float(standardScaler(sale_price))" operator="lessThan" value="-0.9488503"/>
										</Node>
									</Node>
									<Node score="0.41214806">
										<SimplePredicate field="float(standardScaler(day_of_month))" operator="lessThan" value="1.0702041"/>
										<Node score="0.24503194">
											<SimplePredicate field="seller_id" operator="notEqual" value="seller_1"/>
										</Node>
									</Node>
									<Node score="0.15794685">
										<SimplePredicate field="float(standardScaler(lag_1))" operator="lessThan" value="-0.648198"/>
									</Node>
								</Node>
								<Node score="-0.26939556">
									<SimplePredicate field="float(standardScaler(original_price))" operator="lessThan" value="-0.93975896"/>
									<Node score="0.1406785">
										<SimplePredicate field="float(standardScaler(sale_price))" operator="lessThan" value="-0.9414964"/>
										<Node score="0.054545473">
											<SimplePredicate field="seller_id" operator="notEqual" value="seller_1"/>
										</Node>
									</Node>
									<Node score="-0.12107948">
										<SimplePredicate field="float(standardScaler(sale_price))" operator="lessThan" value="-0.9412685"/>
									</Node>
								</Node>
								<Node score="0.23686163">
									<SimplePredicate field="float(standardScaler(sale_price))" operator="lessThan" value="-0.9360358"/>
									<Node score="0.1331163">
										<SimplePredicate field="float(standardScaler(lag_30))" operator="lessThan" value="0.26424098"/>
									</Node>
								</Node>
								<Node score="-0.004910837">
									<SimplePredicate field="product_id" operator="notEqual" value="p302"/>
								</Node>
							</Node>
							<Node score="0.24039076">
								<SimplePredicate field="float(standardScaler(sale_price))" operator="lessThan" value="-0.93861693"/>
								<Node score="0.4955462">
									<SimplePredicate field="seller_id" operator="notEqual" value="seller_1"/>
									<Node score="0.1632093">
										<SimplePredicate field="float(standardScaler(sale_price))" operator="lessThan" value="-0.9412685"/>
										<Node score="0.33890012">
											<SimplePredicate field="float(standardScaler(sale_price))" operator="lessThan" value="-0.9488503"/>
										</Node>
									</Node>
									<Node score="0.3174295">
										<SimplePredicate field="float(standardScaler(lag_1))" operator="lessThan" value="1.7242732"/>
									</Node>
								</Node>
								<Node score="0.6443042">
									<SimplePredicate field="float(standardScaler(day_of_month))" operator="lessThan" value="1.4135789"/>
									<Node score="0.3563237">
										<SimplePredicate field="float(standardScaler(lag_30))" operator="lessThan" value="2.6366737"/>
									</Node>
								</Node>
								<Node score="0.7880283">
									<SimplePredicate field="float(standardScaler(lag_7))" operator="lessThan" value="2.6343231"/>
								</Node>
							</Node>
							<Node score="-0.008546849">
								<SimplePredicate field="float(standardScaler(day_of_month))" operator="lessThan" value="0.4979128"/>
								<Node score="-0.20717576">
									<SimplePredicate field="float(standardScaler(sale_price))" operator="lessThan" value="-0.92316854"/>
									<Node score="0.13307533">
										<SimplePredicate field="float(standardScaler(sale_price))" operator="lessThan" value="-0.9382026"/>
									</Node>
								</Node>
								<Node score="0.15402953">
									<SimplePredicate field="float(standardScaler(day_of_month))" operator="lessThan" value="-0.18883674"/>
								</Node>
							</Node>
							<Node score="-0.0046037156">
								<SimplePredicate field="float(standardScaler(lag_30))" operator="lessThan" value="0.26424098"/>
								<Node score="0.16799305">
									<SimplePredicate field="float(standardScaler(month))" operator="lessThan" value="-0.034800634"/>
								</Node>
							</Node>
							<Node score="0.35086286">
								<SimplePredicate field="seller_id" operator="notEqual" value="seller_4"/>
							</Node>
						</Node>
						<Node score="0.04400903">
							<SimplePredicate field="float(standardScaler(sale_price))" operator="lessThan" value="-0.70691687"/>
							<Node score="0.44884887">
								<SimplePredicate field="float(standardScaler(sale_price))" operator="lessThan" value="-0.80719936"/>
								<Node score="-0.008972179">
									<SimplePredicate field="seller_id" operator="notEqual" value="seller_1"/>
									<Node score="-0.23929091">
										<SimplePredicate field="product_id" operator="notEqual" value="p301"/>
										<Node score="-0.006426159">
											<SimplePredicate field="float(standardScaler(sale_price))" operator="lessThan" value="-0.9172181"/>
										</Node>
									</Node>
									<Node score="0.069588">
										<SimplePredicate field="float(standardScaler(sale_price))" operator="lessThan" value="-0.8179506"/>
									</Node>
								</Node>
								<Node score="-0.0036976503">
									<SimplePredicate field="float(standardScaler(is_weekend))" operator="lessThan" value="1.5798184"/>
									<Node score="0.06577878">
										<SimplePredicate field="float(standardScaler(lag_30))" operator="lessThan" value="0.08174617"/>
									</Node>
								</Node>
								<Node score="0.100107186">
									<SimplePredicate field="float(standardScaler(day_of_month))" operator="lessThan" value="1.6424954"/>
								</Node>
							</Node>
							<Node score="0.006573939">
								<SimplePredicate field="product_id" operator="notEqual" value="p300"/>
								<Node score="-0.21379876">
									<SimplePredicate field="float(standardScaler(sale_price))" operator="lessThan" value="-0.80266273"/>
									<Node score="-0.111213006">
										<SimplePredicate field="float(standardScaler(lag_7))" operator="lessThan" value="0.8101464"/>
									</Node>
								</Node>
								<Node score="-0.4005173">
									<SimplePredicate field="float(standardScaler(lag_7))" operator="lessThan" value="1.5398171"/>
								</Node>
							</Node>
							<Node score="-0.0563142">
								<SimplePredicate field="seller_id" operator="notEqual" value="seller_1"/>
								<Node score="0.025048042">
									<SimplePredicate field="float(standardScaler(sale_price))" operator="lessThan" value="-0.7347167"/>
								</Node>
							</Node>
							<Node score="-0.09446066">
								<SimplePredicate field="float(standardScaler(lag_1))" operator="lessThan" value="-0.8306958"/>
							</Node>
						</Node>
						<Node score="-0.2809125">
							<SimplePredicate field="float(standardScaler(sale_price))" operator="lessThan" value="1.2686968"/>
							<Node score="-0.057285972">
								<SimplePredicate field="float(standardScaler(month))" operator="lessThan" value="1.4355302"/>
								<Node score="-0.24007168">
									<SimplePredicate field="float(standardScaler(sale_price))" operator="lessThan" value="0.40194988"/>
									<Node score="-0.10448573">
										<SimplePredicate field="float(standardScaler(sale_price))" operator="lessThan" value="-0.70364386"/>
									</Node>
								</Node>
								<Node score="-0.09512971">
									<SimplePredicate field="seller_id" operator="notEqual" value="seller_1"/>
								</Node>
							</Node>
							<Node score="0.032907993">
								<SimplePredicate field="product_id" operator="notEqual" value="p300"/>
								<Node score="-0.035424154">
									<SimplePredicate field="float(standardScaler(day_of_month))" operator="lessThan" value="0.9557458"/>
								</Node>
							</Node>
							<Node score="-0.02546832">
								<SimplePredicate field="float(standardScaler(sale_price))" operator="lessThan" value="-0.70364386"/>
							</Node>
						</Node>
						<Node score="-0.059402138">
							<SimplePredicate field="product_id" operator="notEqual" value="p102"/>
							<Node score="-0.119153045">
								<SimplePredicate field="float(standardScaler(sale_price))" operator="lessThan" value="1.3069992"/>
								<Node score="-0.2177699">
									<SimplePredicate field="seller_id" operator="notEqual" value="seller_1"/>
								</Node>
							</Node>
							<Node score="-0.29332706">
								<SimplePredicate field="float(standardScaler(lag_1))" operator="lessThan" value="1.1767797"/>
							</Node>
						</Node>
						<Node score="-0.04492361">
							<SimplePredicate field="float(standardScaler(sale_price))" operator="lessThan" value="1.6370139"/>
							<Node score="-0.12957856">
								<SimplePredicate field="float(standardScaler(month))" operator="lessThan" value="1.7295964"/>
							</Node>
						</Node>
						<Node score="-0.17815132">
							<SimplePredicate field="float(standardScaler(sale_price))" operator="lessThan" value="1.68816"/>
						</Node>
					</Node>
				</TreeModel>
			</Segment>
			<Segment id="8">
				<True/>
				<TreeModel functionName="regression" noTrueChildStrategy="returnLastPrediction" x-mathContext="float">
					<MiningSchema>
						<MiningField name="product_id"/>
						<MiningField name="seller_id"/>
						<MiningField name="float(standardScaler(sale_price))"/>
						<MiningField name="float(standardScaler(is_weekend))"/>
						<MiningField name="float(standardScaler(lag_7))"/>
						<MiningField name="float(standardScaler(day_of_month))"/>
						<MiningField name="float(standardScaler(lag_30))"/>
						<MiningField name="float(standardScaler(lag_1))"/>
						<MiningField name="float(standardScaler(month))"/>
					</MiningSchema>
					<Node score="0.3660023">
						<True/>
						<Node score="0.7185514">
							<SimplePredicate field="float(standardScaler(sale_price))" operator="lessThan" value="-0.92136115"/>
							<Node score="-0.24517114">
								<SimplePredicate field="float(standardScaler(is_weekend))" operator="lessThan" value="1.5798184"/>
								<Node score="-0.34377706">
									<SimplePredicate field="float(standardScaler(sale_price))" operator="lessThan" value="-0.94717234"/>
									<Node score="0.59225905">
										<SimplePredicate field="float(standardScaler(sale_price))" operator="lessThan" value="-0.94770503"/>
										<Node score="0.033420082">
											<SimplePredicate field="float(standardScaler(day_of_month))" operator="lessThan" value="0.7268293"/>
											<Node score="0.3771505">
												<SimplePredicate field="float(standardScaler(sale_price))" operator="lessThan" value="-0.949306"/>
											</Node>
										</Node>
										<Node score="0.18883638">
											<SimplePredicate field="float(standardScaler(lag_7))" operator="lessThan" value="3.3639936"/>
										</Node>
									</Node>
									<Node score="0.37117007">
										<SimplePredicate field="float(standardScaler(day_of_month))" operator="lessThan" value="1.0702041"/>
										<Node score="0.22057931">
											<SimplePredicate field="seller_id" operator="notEqual" value="seller_1"/>
										</Node>
									</Node>
									<Node score="-0.054808944">
										<SimplePredicate field="float(standardScaler(lag_1))" operator="lessThan" value="1.7242732"/>
									</Node>
								</Node>
								<Node score="0.07132177">
									<SimplePredicate field="product_id" operator="notEqual" value="p402"/>
									<Node score="0.13396752">
										<SimplePredicate field="float(standardScaler(sale_price))" operator="lessThan" value="-0.9418485"/>
										<Node score="0.03991046">
											<SimplePredicate field="float(standardScaler(sale_price))" operator="lessThan" value="-0.94278073"/>
										</Node>
									</Node>
									<Node score="-0.10647588">
										<SimplePredicate field="product_id" operator="notEqual" value="p302"/>
									</Node>
								</Node>
								<Node score="0.14724894">
									<SimplePredicate field="float(standardScaler(sale_price))" operator="lessThan" value="-0.9355511"/>
									<Node score="0.31390458">
										<SimplePredicate field="float(standardScaler(sale_price))" operator="lessThan" value="-0.93892765"/>
									</Node>
								</Node>
								<Node score="-0.026681015">
									<SimplePredicate field="float(standardScaler(sale_price))" operator="lessThan" value="-0.93505394"/>
								</Node>
							</Node>
							<Node score="0.3452699">
								<SimplePredicate field="float(standardScaler(sale_price))" operator="lessThan" value="-0.93892765"/>
								<Node score="0.014654643">
									<SimplePredicate field="float(standardScaler(sale_price))" operator="lessThan" value="-0.9411235"/>
									<Node score="0.75044256">
										<SimplePredicate field="float(standardScaler(sale_price))" operator="lessThan" value="-0.949306"/>
										<Node score="0.34849253">
											<SimplePredicate field="float(standardScaler(lag_30))" operator="lessThan" value="2.6366737"/>
										</Node>
									</Node>
									<Node score="0.20322204">
										<SimplePredicate field="float(standardScaler(sale_price))" operator="lessThan" value="-0.94418937"/>
									</Node>
								</Node>
								<Node score="-0.38321218">
									<SimplePredicate field="float(standardScaler(lag_1))" operator="lessThan" value="-1.0131936"/>
									<Node score="0.009775058">
										<SimplePredicate field="float(standardScaler(lag_7))" operator="lessThan" value="0.992564"/>
									</Node>
								</Node>
								<Node score="0.5178858">
									<SimplePredicate field="float(standardScaler(month))" operator="lessThan" value="-0.622933"/>
								</Node>
							</Node>
							<Node score="0.15057021">
								<SimplePredicate field="float(standardScaler(lag_30))" operator="lessThan" value="3.9141376"/>
								<Node score="0.25127622">
									<SimplePredicate field="float(standardScaler(lag_1))" operator="lessThan" value="-0.46570024"/>
									<Node score="0.08595147">
										<SimplePredicate field="float(standardScaler(sale_price))" operator="lessThan" value="-0.9225523"/>
									</Node>
								</Node>
								<Node score="0.025922356">
									<SimplePredicate field="seller_id" operator="notEqual" value="seller_1"/>
								</Node>
							</Node>
						</Node>
						<Node score="0.0058163176">
							<SimplePredicate field="float(standardScaler(sale_price))" operator="lessThan" value="-0.70691687"/>
							<Node score="0.05786677">
								<SimplePredicate field="float(standardScaler(sale_price))" operator="lessThan" value="-0.80719936"/>
								<Node score="0.6068043">
									<SimplePredicate field="float(standardScaler(lag_1))" operator="lessThan" value="1.3592776"/>
									<Node score="0.009942043">
										<SimplePredicate field="seller_id" operator="notEqual" value="seller_1"/>
										<Node score="-0.036235403">
											<SimplePredicate field="product_id" operator="notEqual" value="p301"/>
										</Node>
									</Node>
									<Node score="0.034306508">
										<SimplePredicate field="float(standardScaler(lag_7))" operator="lessThan" value="3.9112468"/>
									</Node>
								</Node>
								<Node score="-0.08391314">
									<SimplePredicate field="float(standardScaler(month))" operator="lessThan" value="-0.9169991"/>
									<Node score="0.4160121">
										<SimplePredicate field="float(standardScaler(day_of_month))" operator="lessThan" value="-1.4478775"/>
									</Node>
								</Node>
								<Node score="0.21862184">
									<SimplePredicate field="float(standardScaler(month))" operator="lessThan" value="-0.3288668"/>
								</Node>
							</Node>
							<Node score="0.0062452317">
								<SimplePredicate field="product_id" operator="notEqual" value="p300"/>
								<Node score="-0.18618475">
									<SimplePredicate field="float(standardScaler(sale_price))" operator="lessThan" value="-0.80266273"/>
									<Node score="-0.0946692">
										<SimplePredicate field="float(standardScaler(sale_price))" operator="lessThan" value="-0.8045064"/>
									</Node>
								</Node>
								<Node score="-0.36116824">
									<SimplePredicate field="float(standardScaler(lag_7))" operator="lessThan" value="1.5398171"/>
								</Node>
							</Node>
							<Node score="-0.050685477">
								<SimplePredicate field="seller_id" operator="notEqual" value="seller_1"/>
								<Node score="0.022550834">
									<SimplePredicate field="float(standardScaler(sale_price))" operator="lessThan" value="-0.7347167"/>
								</Node>
							</Node>
							<Node score="0.112463735">
								<SimplePredicate field="float(standardScaler(day_of_month))" operator="lessThan" value="-0.99004453"/>
							</Node>
						</Node>
						<Node score="-0.3317915">
							<SimplePredicate field="float(standardScaler(sale_price))" operator="lessThan" value="1.2465315"/>
							<Node score="-0.024767278">
								<SimplePredicate field="product_id" operator="notEqual" value="p300"/>
								<Node score="-0.0077503184">
									<SimplePredicate field="float(standardScaler(month))" operator="lessThan" value="1.4355302"/>
									<Node score="-0.079497345">
										<SimplePredicate field="float(standardScaler(day_of_month))" operator="lessThan" value="1.6424954"/>
									</Node>
								</Node>
								<Node score="0.07194689">
									<SimplePredicate field="float(standardScaler(sale_price))" operator="lessThan" value="0.5367233"/>
								</Node>
							</Node>
							<Node score="-0.3562009">
								<SimplePredicate field="float(standardScaler(sale_price))" operator="lessThan" value="-0.70364386"/>
								<Node score="-0.07961168">
									<SimplePredicate field="float(standardScaler(day_of_month))" operator="lessThan" value="1.0702041"/>
								</Node>
							</Node>
							<Node score="-0.19348662">
								<SimplePredicate field="float(standardScaler(sale_price))" operator="lessThan" value="-0.6988793"/>
							</Node>
						</Node>
						<Node score="-0.23232356">
							<SimplePredicate field="float(standardScaler(sale_price))" operator="lessThan" value="1.6501336"/>
							<Node score="-0.07718361">
								<SimplePredicate field="product_id" operator="notEqual" value="p101"/>
								<Node score="-0.12598132">
									<SimplePredicate field="seller_id" operator="notEqual" value="seller_1"/>
								</Node>
							</Node>
							<Node score="-0.13778529">
								<SimplePredicate field="float(standardScaler(sale_price))" operator="lessThan" value="1.2686968"/>
							</Node>
						</Node>
						<Node score="-0.22500506">
							<SimplePredicate field="float(standardScaler(lag_7))" operator="lessThan" value="1.7222347"/>
							<Node score="-0.16877575">
								<SimplePredicate field="float(standardScaler(sale_price))" operator="lessThan" value="1.68816"/>
							</Node>
						</Node>
						<Node score="-0.15541232">
							<SimplePredicate field="float(standardScaler(day_of_month))" operator="lessThan" value="-0.8755863"/>
						</Node>
					</Node>
				</TreeModel>
			</Segment>
			<Segment id="9">
				<True/>
				<TreeModel functionName="regression" noTrueChildStrategy="returnLastPrediction" x-mathContext="float">
					<MiningSchema>
						<MiningField name="product_id"/>
						<MiningField name="seller_id"/>
						<MiningField name="float(standardScaler(sale_price))"/>
						<MiningField name="float(standardScaler(is_weekend))"/>
						<MiningField name="float(standardScaler(lag_7))"/>
						<MiningField name="float(standardScaler(day_of_month))"/>
						<MiningField name="float(standardScaler(lag_30))"/>
						<MiningField name="float(standardScaler(lag_1))"/>
						<MiningField name="float(standardScaler(month))"/>
						<MiningField name="float(standardScaler(day_of_week))"/>
						<MiningField name="float(standardScaler(original_price))"/>
					</MiningSchema>
					<Node score="-0.3430584">
						<True/>
						<Node score="0.66466004">
							<SimplePredicate field="float(standardScaler(sale_price))" operator="lessThan" value="-0.9217064"/>
							<Node score="0.07234853">
								<SimplePredicate field="float(standardScaler(is_weekend))" operator="lessThan" value="1.5798184"/>
								<Node score="0.017484147">
									<SimplePredicate field="seller_id" operator="notEqual" value="seller_1"/>
									<Node score="0.10017126">
										<SimplePredicate field="float(standardScaler(sale_price))" operator="lessThan" value="-0.9470377"/>
										<Node score="0.3049192">
											<SimplePredicate field="float(standardScaler(lag_30))" operator="lessThan" value="-0.6482331"/>
											<Node score="0.080048196">
												<SimplePredicate field="float(standardScaler(day_of_month))" operator="lessThan" value="-0.41775325"/>
											</Node>
										</Node>
										<Node score="0.22527182">
											<SimplePredicate field="float(standardScaler(month))" operator="lessThan" value="-0.9169991"/>
										</Node>
									</Node>
									<Node score="-0.18501383">
										<SimplePredicate field="float(standardScaler(original_price))" operator="lessThan" value="-0.93975896"/>
										<Node score="0.038975123">
											<SimplePredicate field="float(standardScaler(sale_price))" operator="lessThan" value="-0.9414964"/>
										</Node>
									</Node>
									<Node score="0.14360587">
										<SimplePredicate field="float(standardScaler(sale_price))" operator="lessThan" value="-0.936245"/>
									</Node>
								</Node>
								<Node score="0.5987055">
									<SimplePredicate field="float(standardScaler(sale_price))" operator="lessThan" value="-0.94717234"/>
									<Node score="0.9861719">
										<SimplePredicate field="float(standardScaler(sale_price))" operator="lessThan" value="-0.9475038"/>
										<Node score="0.16860156">
											<SimplePredicate field="float(standardScaler(lag_30))" operator="lessThan" value="5.1916013"/>
										</Node>
									</Node>
									<Node score="0.06353646">
										<SimplePredicate field="float(standardScaler(day_of_month))" operator="lessThan" value="-0.41775325"/>
									</Node>
								</Node>
								<Node score="-0.10915663">
									<SimplePredicate field="float(standardScaler(original_price))" operator="lessThan" value="-0.93975896"/>
									<Node score="0.12678136">
										<SimplePredicate field="float(standardScaler(sale_price))" operator="lessThan" value="-0.9416828"/>
									</Node>
								</Node>
								<Node score="0.23327608">
									<SimplePredicate field="float(standardScaler(sale_price))" operator="lessThan" value="-0.9360358"/>
								</Node>
							</Node>
							<Node score="0.09827594">
								<SimplePredicate field="float(standardScaler(sale_price))" operator="lessThan" value="-0.93892765"/>
								<Node score="0.27353916">
									<SimplePredicate field="seller_id" operator="notEqual" value="seller_1"/>
									<Node score="-0.052646536">
										<SimplePredicate field="float(standardScaler(sale_price))" operator="lessThan" value="-0.9412685"/>
										<Node score="0.20812023">
											<SimplePredicate field="float(standardScaler(sale_price))" operator="lessThan" value="-0.94418937"/>
										</Node>
									</Node>
									<Node score="0.5432983">
										<SimplePredicate field="float(standardScaler(lag_7))" operator="lessThan" value="-0.64919496"/>
									</Node>
								</Node>
								<Node score="0.5055601">
									<SimplePredicate field="float(standardScaler(day_of_month))" operator="lessThan" value="1.6424954"/>
									<Node score="0.2955553">
										<SimplePredicate field="float(standardScaler(sale_price))" operator="lessThan" value="-0.94029486"/>
									</Node>
								</Node>
								<Node score="0.8883406">
									<SimplePredicate field="float(standardScaler(lag_7))" operator="lessThan" value="2.6343231"/>
								</Node>
							</Node>
							<Node score="0.30645713">
								<SimplePredicate field="float(standardScaler(lag_30))" operator="lessThan" value="3.9141376"/>
								<Node score="-0.002386359">
									<SimplePredicate field="seller_id" operator="notEqual" value="seller_1"/>
									<Node score="0.107389405">
										<SimplePredicate field="float(standardScaler(lag_1))" operator="lessThan" value="-0.100704685"/>
									</Node>
								</Node>
								<Node score="0.082861036">
									<SimplePredicate field="float(standardScaler(sale_price))" operator="lessThan" value="-0.9225523"/>
								</Node>
							</Node>
						</Node>
						<Node score="0.037004855">
							<SimplePredicate field="float(standardScaler(sale_price))" operator="lessThan" value="-0.70691687"/>
							<Node score="0.04610943">
								<SimplePredicate field="float(standardScaler(sale_price))" operator="lessThan" value="-0.80719936"/>
								<Node score="-0.037807994">
									<SimplePredicate field="float(standardScaler(lag_1))" operator="lessThan" value="1.3592776"/>
									<Node score="-0.01526385">
										<SimplePredicate field="float(standardScaler(lag_7))" operator="lessThan" value="2.4519055"/>
										<Node score="0.02192571">
											<SimplePredicate field="float(standardScaler(month))" operator="lessThan" value="-0.3288668"/>
										</Node>
									</Node>
									<Node score="0.23807752">
										<SimplePredicate field="float(standardScaler(lag_30))" operator="lessThan" value="0.26424098"/>
									</Node>
								</Node>
								<Node score="-0.07797881">
									<SimplePredicate field="float(standardScaler(month))" operator="lessThan" value="-0.9169991"/>
									<Node score="0.38481122">
										<SimplePredicate field="float(standardScaler(day_of_month))" operator="lessThan" value="-1.4478775"/>
									</Node>
								</Node>
								<Node score="0.2050973">
									<SimplePredicate field="float(standardScaler(month))" operator="lessThan" value="-0.3288668"/>
								</Node>
							</Node>
							<Node score="0.005932975">
								<SimplePredicate field="product_id" operator="notEqual" value="p300"/>
								<Node score="0.057920218">
									<SimplePredicate field="float(standardScaler(sale_price))" operator="lessThan" value="-0.80266273"/>
									<Node score="-0.11373168">
										<SimplePredicate field="float(standardScaler(lag_30))" operator="lessThan" value="2.0891893"/>
									</Node>
								</Node>
								<Node score="-0.325685">
									<SimplePredicate field="float(standardScaler(lag_7))" operator="lessThan" value="1.5398171"/>
								</Node>
							</Node>
							<Node score="-0.043945864">
								<SimplePredicate field="seller_id" operator="notEqual" value="seller_1"/>
								<Node score="0.03576031">
									<SimplePredicate field="float(standardScaler(sale_price))" operator="lessThan" value="-0.7383212"/>
								</Node>
							</Node>
							<Node score="-0.08672487">
								<SimplePredicate field="float(standardScaler(lag_1))" operator="lessThan" value="-0.8306958"/>
							</Node>
						</Node>
						<Node score="-0.29892245">
							<SimplePredicate field="float(standardScaler(sale_price))" operator="lessThan" value="1.2465315"/>
							<Node score="0.027476016">
								<SimplePredicate field="product_id" operator="notEqual" value="p300"/>
								<Node score="-0.042249452">
									<SimplePredicate field="float(standardScaler(month))" operator="lessThan" value="1.4355302"/>
									<Node score="-0.076915674">
